// Auto-generated neural network weights and biases
#ifndef NN_WEIGHTS_H
#define NN_WEIGHTS_H

// Layer 0
const float W0[8][8] = {
  {1.543609, 1.891374, -0.268613, -1.752465, 0.154958, 0.021426, -0.740878, 1.953336},
  {-0.285660, -1.239356, -0.740839, -0.537193, 0.514707, -1.457927, -0.126603, 0.303269},
  {0.794636, 0.121239, -1.002989, -2.359309, 0.840030, 0.654011, -0.347239, -2.886512},
  {-0.268599, 2.120247, 0.618201, 1.643178, -0.486194, -1.587178, -1.588529, -0.147980},
  {-0.382174, 1.456963, 2.381338, 0.516247, -0.170317, -0.870572, -1.162819, -1.113712},
  {-1.794035, 0.829122, 1.041167, -0.506919, 1.333317, 0.215424, -1.071058, 0.590746},
  {0.729030, 0.154036, -0.008453, -0.736915, -0.122662, 1.060600, -2.873949, -0.167461},
  {-0.861846, -0.401421, -0.992026, -1.901253, -0.007173, 2.105206, 0.176760, -0.180127},
};
const float Bias0[8] = {-0.483756, 1.617480, -1.196372, -0.319941, 2.807467, 0.921886, -0.041210, 0.079722};

// Layer 1
const float W1[8][8] = {
  {1.250809, 0.735013, 0.475507, -0.662770, 0.690432, -1.545363, 1.592434, 1.518876},
  {-0.535441, -1.197720, -0.701284, -0.146097, 0.773879, -0.525651, 1.722553, 0.465490},
  {-0.292740, 0.317350, 1.344412, -0.108246, -0.805316, -0.419405, -0.257960, 1.034006},
  {-0.168459, -1.925764, 0.607243, -0.895705, -2.423028, 0.831962, -1.040657, -1.619983},
  {-1.628783, -1.826728, -1.085241, 0.692006, 0.411984, -1.285600, -0.043155, 0.785162},
  {-0.794458, 1.028287, 0.441693, -0.099481, -0.603848, 0.530438, 1.921774, -0.259779},
  {0.344818, -2.161047, -0.634358, -0.649943, -1.148727, 0.341625, 1.199828, 0.427982},
  {-0.472532, 0.799696, -1.586427, -1.284753, -0.612971, 0.556731, 1.065045, 0.194904},
};
const float Bias1[8] = {0.391385, 0.634470, 0.059946, -1.435418, -0.083209, -0.547664, -3.084760, -0.576412};

// Layer 2
const float W2[2][8] = {
  {-0.541226, 0.178744, -0.613732, -0.319732, 0.407823, -1.638158, -1.865835, -0.117270},
  {0.348786, -0.752744, -0.351676, -0.534190, -1.067445, -0.232892, 0.056826, 0.012713},
};
const float Bias2[2] = {-1.344931, -2.612007};

#endif // NN_WEIGHTS_H
