// Auto-generated neural network weights and biases
#ifndef NN_WEIGHTS_H
#define NN_WEIGHTS_H

// Layer 0
const float W0[8][10] = {
  {-0.626022, -0.506515, -1.186952, 1.465455, -0.144219, -0.500250, -1.965915, 0.078895, 1.233092, 0.411130},
  {1.832680, -0.912722, 1.422583, -0.493685, -0.165812, 1.372190, -0.412038, -0.322235, 0.658855, 1.064404},
  {-0.146188, -1.183736, 1.130479, -0.356120, -1.337218, -0.308690, -0.066442, 1.746328, 1.683419, -2.273345},
  {-2.017468, 0.982951, -0.912297, 0.627983, -3.011676, 1.268455, 0.505905, 0.006224, -1.115441, 0.119243},
  {-0.973989, -0.898523, -0.094305, 0.705781, 0.842561, -1.427648, 0.256207, 0.639093, -0.576015, -0.720441},
  {-0.156801, 0.320724, 0.037221, 0.787750, 0.535505, 0.831011, 0.005279, 2.037571, -1.070802, 1.453518},
  {-0.771032, 0.731863, -0.952099, 0.225430, 0.415171, -2.166382, 0.229556, 0.941798, -0.353311, 0.688914},
  {-1.846724, 1.511413, -0.236869, -0.564770, -0.702589, 0.587262, 1.110953, 0.454913, -0.014933, 0.467369},
};
const float Bias0[8] = {-0.634708, -1.723096, 0.461220, 0.691050, 0.241348, 0.120947, 0.249581, 1.036414};

// Layer 1
const float W1[8][8] = {
  {-1.228203, 0.785214, 0.607994, 1.104745, -2.424300, 0.137388, 0.509780, -1.224906},
  {0.688258, 0.052848, -0.004774, 1.129348, 0.952144, 0.445057, -0.210086, 0.488472},
  {0.828330, 0.153236, 1.626886, 1.175519, -1.239547, 1.520716, 1.484387, 0.631250},
  {0.232283, -0.629119, 1.145582, 0.193345, 0.148475, 0.039550, -0.539450, -1.121098},
  {-0.401965, -0.949367, 0.348860, -1.056365, 0.807570, 0.076352, 1.966539, -0.446819},
  {0.230228, -2.180852, 1.282633, -0.339551, 0.830261, 0.645880, 1.386558, -0.254683},
  {-1.188968, -0.232053, 1.229030, 0.805411, 0.492099, -0.274470, -0.383888, -0.691503},
  {0.016873, -1.607029, 1.114149, -0.659871, 0.922812, -1.174051, 1.179112, 0.194291},
};
const float Bias1[8] = {-0.364194, 0.417932, 1.663779, 0.981274, 1.193015, -0.571326, 1.528846, 1.230573};

// Layer 2
const float W2[5][8] = {
  {-1.063740, -0.251340, -0.517338, 0.583020, 1.787312, 0.604065, -1.416414, 1.449696},
  {0.694385, -2.358306, -2.230139, 0.614715, -0.535606, 0.750687, -1.649791, -1.024687},
  {1.064813, 0.871082, 0.846834, 0.133422, -0.648346, -2.201685, -0.116367, -3.508991},
  {-0.648361, -1.411684, -1.330416, -0.840328, -1.200411, 0.676454, 0.203492, 0.072851},
  {-0.234969, -1.867718, -1.023180, -1.165442, 1.362091, -1.193540, 0.318245, -2.694580},
};
const float Bias2[5] = {0.366040, 0.218543, 0.305976, -0.430002, 0.133499};

#endif // NN_WEIGHTS_H
