// Auto-generated neural network weights and biases
#ifndef NN_WEIGHTS_H
#define NN_WEIGHTS_H

// Layer 0
const float W0[16][10] = {
  {0.752258, -1.139203, 0.223193, 0.293076, 0.294693, 1.836687, -0.473764, 1.337056, -0.192322, -0.299869},
  {0.172567, 1.917372, 0.368056, -0.751047, -0.461877, 0.999629, -0.087073, 0.152233, 1.753530, 0.668963},
  {0.280368, -1.313791, 0.114702, -1.378279, 0.864514, -2.874096, -0.157187, -0.041521, -3.415057, 1.371203},
  {0.728288, -0.156682, -1.696034, -1.946670, 0.828354, -1.019763, 2.227209, 0.038169, -0.456842, 1.290980},
  {0.173058, -0.409145, 0.630258, -0.279938, -1.707671, 0.851086, 0.127152, -1.500098, 0.978147, -1.176791},
  {0.970805, -1.113962, -0.096102, -0.313133, -1.239849, -1.282664, -0.152832, -0.127110, -0.222728, 0.010516},
  {-1.452098, 0.564921, -1.023797, 1.304388, 0.672879, 1.478021, -0.525164, -1.977163, 0.116094, 0.696724},
  {-0.824464, -0.003082, -0.321007, 0.577466, 0.831224, 1.981351, -1.236735, -0.174636, 0.283700, -0.409131},
  {0.012881, -1.350000, 0.526564, 0.052072, 0.047306, 2.025624, -0.688045, 0.112256, 1.647604, 0.100101},
  {0.887192, -0.583332, -0.262165, 2.131367, -0.498140, 2.948928, 0.155761, 0.218843, 0.228333, -0.205221},
  {0.356677, 0.048101, -0.664580, -0.436286, -0.285190, -0.067750, 0.347670, -1.019801, 1.201246, 0.447663},
  {0.249562, 0.542667, -1.276823, -0.088766, -0.923386, -0.198415, -0.870401, 1.677458, -0.358347, -0.043176},
  {0.493892, -0.140007, -0.063070, 1.057494, -1.234633, 2.060869, 0.239926, -0.175012, 1.295618, -0.917798},
  {0.089924, 0.553454, -0.870624, -0.486144, 1.393692, -4.074339, 0.984119, -1.151652, -1.776335, 0.472572},
  {-0.114610, -0.635134, 1.239303, -1.313051, -1.269048, -3.421653, -1.520064, -0.021349, -2.956874, -1.614275},
  {0.789169, 0.567197, -0.064787, -0.106971, 0.494951, -0.803153, 0.257625, -0.561924, 1.577596, -2.264496},
};
const float Bias0[16] = {-0.127767, -0.559328, 0.877101, -0.981260, 1.373306, 1.666740, -0.354515, 0.320454, -0.538270, -1.834277, -0.793370, -1.571294, 0.467427, -0.417367, -1.677245, 2.990174};

// Layer 1
const float W1[16][16] = {
  {0.066446, 0.388270, 0.538653, -0.827767, 2.430320, -1.415381, 1.364886, -0.833411, -0.914708, 0.153658, -1.202446, 0.502994, -0.192792, -1.288406, 0.400532, -1.407769},
  {1.122074, 1.803868, -2.974735, -0.345298, 1.152916, -1.113445, -0.079362, -0.006967, -0.123612, 0.508924, 1.734622, -0.349428, 0.994875, -1.149126, -2.225576, -1.369985},
  {-1.978359, -0.149375, 0.386689, -0.864632, -0.679908, 1.681661, 0.272018, -0.466967, 0.491252, -0.222037, 0.506717, -0.622129, 1.909537, -0.071362, -0.414225, -1.744412},
  {-1.315580, 0.008230, 0.364511, -0.248734, 0.128191, 0.405852, 0.908622, 0.041015, 0.650336, -0.555645, -0.960612, 0.967527, -0.622786, 1.498764, -0.484456, 1.544737},
  {1.552896, 0.890142, -0.578734, 0.337259, 1.643055, 0.914544, 1.566140, 0.557307, -0.329217, -0.761144, -0.666109, -0.506404, -0.131492, -1.436332, -0.568680, -0.441748},
  {0.328738, 0.721951, -2.424267, -1.868676, 0.228135, -0.525777, -0.572993, 0.580201, 2.490438, 1.302782, 1.465293, -0.972027, 0.556646, -0.123104, -0.212319, -1.378276},
  {0.310118, 0.646180, 1.290588, 0.676426, 0.609588, 0.378631, -1.195398, -1.863254, -0.080212, -2.266465, 0.208222, 0.513202, -0.917980, 2.072811, 0.482902, 0.769508},
  {1.046202, 0.325360, -0.504336, -1.650004, -0.305455, 1.317108, 0.675857, 0.709072, 2.669659, -1.529578, -0.540011, -1.639090, 2.320129, -1.735442, -4.422259, 1.787580},
  {0.480624, -0.832778, -0.717723, -0.068395, -0.126500, 1.144684, -0.534717, 0.682913, 1.326767, 0.735497, -1.666724, -0.030385, 0.130373, 0.433188, -0.709651, 2.090883},
  {0.918137, -0.163403, 2.205274, 0.484866, -1.277155, -0.366162, 0.536149, -0.786375, -0.057020, -1.252654, 0.347890, 1.071738, -0.659135, 1.659071, 0.135988, -0.551489},
  {-1.005491, 0.547563, -2.115711, -0.608666, 1.567307, -0.313160, 0.168609, 0.284683, 0.905660, 0.507627, -0.480509, 1.049875, 0.685121, -2.456192, -2.116922, 3.332610},
  {-0.251119, -0.102933, -1.321308, 2.375854, -1.666592, 0.515156, 0.484087, -0.071810, -0.444034, 0.282586, -1.080518, -0.952665, 1.836444, 0.811592, 2.255004, -0.647177},
  {0.455589, -0.824371, -0.291329, -0.477477, -0.484555, 0.412710, 2.509118, 0.512817, -0.356078, 0.229688, -0.547023, -0.574445, 0.580321, 1.016213, -0.411083, 0.865576},
  {0.537045, 0.038431, 2.224256, -0.232585, 0.899511, 1.619602, 1.080621, 0.289509, -1.187624, -2.407382, -2.500066, -0.785198, -0.398491, 0.583328, -1.429043, -0.712202},
  {-0.701633, -2.210550, -0.544431, 0.971203, 1.219947, 0.158476, -0.554059, -1.091400, 1.000675, 1.792120, -0.645647, 1.153792, -0.833477, -0.526797, 1.350845, 0.219990},
  {-0.772847, -0.695563, 2.089689, -0.258012, 0.490464, 0.385795, -0.924149, -0.319018, -0.398793, -1.050682, 0.502126, -0.484658, -1.973579, -0.627298, 1.307898, 0.182607},
};
const float Bias1[16] = {-0.810142, 0.205668, -0.114380, -0.484247, -0.463301, -0.089153, -0.034235, 0.214656, 1.513307, 0.065697, 0.615015, -0.040858, 0.808686, -0.416055, -0.012903, -0.955733};

// Layer 2
const float W2[5][16] = {
  {-1.891031, -2.832552, 0.249580, -0.893675, 0.896458, -2.704907, 1.585442, 4.379608, -0.664008, 0.917214, 1.407297, -2.229013, -0.993326, 2.587532, -1.231074, -1.460499},
  {-0.311817, -1.806805, 0.152071, 0.314374, -1.240213, -1.048531, -0.297576, -2.546660, 0.701117, 1.768652, -4.046086, 0.461275, 0.119765, 0.459306, 0.756251, 2.620748},
  {-0.039493, 3.032503, 0.623635, -1.449890, 0.495969, 1.811780, -2.032319, 0.074826, 0.691231, -1.658109, 1.442860, -0.773498, 0.113919, -1.696752, -0.232075, -1.665988},
  {-0.174134, 0.203396, -0.352123, -1.054484, -0.206703, 1.820868, 0.654465, 0.664450, -0.848818, -1.213363, -1.236513, -1.527873, -1.730326, 1.113771, -0.578863, -1.407597},
  {0.122811, 0.607929, -1.135347, 0.343709, -1.002689, -0.124213, -1.009893, -0.439019, -0.172215, -0.379894, -0.385144, -0.419809, -0.843224, 0.311932, 0.555871, -0.616681},
};
const float Bias2[5] = {-2.606224, -0.235438, -0.507347, -1.705013, -2.107968};

#endif // NN_WEIGHTS_H
