// Auto-generated neural network weights and biases
#ifndef NN_WEIGHTS_H
#define NN_WEIGHTS_H

// Layer 0
const float W0[8][10] = {
  {-0.263575, 0.477564, -1.326519, 1.061303, 0.446593, 3.268637, 1.133713, 0.007169, 2.241274, -0.322472},
  {-0.119279, -0.939066, 1.152715, -0.371039, 0.582900, -1.946319, -1.066377, 0.213565, -1.959424, 0.048673},
  {-0.029221, 0.034100, -0.261709, 0.775515, -0.449374, 2.414540, 0.285984, 0.190990, 1.712518, 0.467094},
  {1.723105, 2.376013, -1.231719, -1.362740, -0.853823, -0.872803, -0.684439, 0.427015, -2.328661, 1.741424},
  {0.231838, 0.259587, 0.277541, -0.225658, 1.162729, 1.569774, -0.558989, 0.835050, 0.460055, 0.162615},
  {-0.929970, -0.444923, 0.203004, -0.484590, 1.004994, -1.994094, -0.399258, -0.391306, 0.050928, -0.421296},
  {-0.323553, -0.904046, -0.165138, -0.231919, 0.334965, -2.178553, 0.830182, 0.249020, -0.409995, 1.048765},
  {0.246832, -0.200803, 1.003237, 0.611213, -1.069201, 2.305997, -1.168043, -0.490920, 1.001728, 0.509269},
};
const float Bias0[8] = {1.287443, -0.951885, 1.557187, 0.049892, 0.638778, -0.495012, 0.466731, 1.449601};

// Layer 1
const float W1[8][8] = {
  {-0.971041, 0.155460, -0.307123, 1.375542, 1.478492, 0.318951, 1.012002, 0.482891},
  {0.760488, 1.798449, -1.168977, 1.345471, 0.730687, 0.156476, 0.830443, 0.232019},
  {1.647520, -1.650663, 1.433125, -0.176068, 0.467261, 0.841685, 0.247552, -1.034737},
  {-2.455811, 2.569338, -3.731203, 0.605781, -0.190242, 0.504422, 0.583401, -2.051146},
  {1.317577, -1.017843, 1.910349, -0.861147, 1.361156, -1.450457, 0.164717, 2.900069},
  {2.653012, -1.709152, 0.359978, -0.990199, 0.715541, -1.859351, -1.825878, 1.262625},
  {-0.614216, 0.178188, -0.441263, -0.491230, 1.901695, 1.113744, -0.135701, 1.213069},
  {2.329704, -0.992126, 1.005255, -1.074486, 0.958987, -1.579489, -1.344000, 0.474301},
};
const float Bias1[8] = {0.586875, 2.949199, -1.204382, -0.881061, 0.326265, 0.207529, 0.666959, -0.464705};

// Layer 2
const float W2[5][8] = {
  {-0.001106, -2.128159, -0.388606, -2.089374, 2.427216, -3.067933, 1.773881, -2.846854},
  {0.621306, -3.059730, -0.325871, 5.206970, -2.583315, -2.725084, 0.510139, -0.088754},
  {-0.416995, -0.121261, 1.938429, -5.549701, 2.063331, 1.982888, 0.411550, 2.051939},
  {0.549993, -1.542658, -0.844632, -1.067251, -2.801550, -1.916546, -1.216788, -0.950337},
  {-0.509909, -1.143025, -2.244279, 0.077170, 0.192162, 0.088815, -1.982402, 1.039002},
};
const float Bias2[5] = {0.281664, 0.809153, -3.277780, 0.268343, -1.171124};

#endif // NN_WEIGHTS_H
