// Auto-generated neural network weights and biases
#ifndef NN_WEIGHTS_H
#define NN_WEIGHTS_H

// Layer 0
const float W0[16][4] = {
  {1.182757, -1.170952, -0.551698, 2.043665},
  {1.747037, -0.583178, 1.041613, 1.180585},
  {0.387726, 1.365604, -0.814776, -0.418260},
  {-0.535962, -0.663731, 1.048824, -0.789796},
  {-0.209704, 0.840692, -0.257088, 1.336180},
  {-0.991914, 1.827203, -0.695529, -0.960799},
  {0.252218, -0.493186, -2.015916, 0.557962},
  {-2.313500, 0.819102, -0.170565, 2.169118},
  {0.644294, 0.976225, 1.049707, 1.082523},
  {-0.547078, 0.751361, 1.023629, -1.430681},
  {-0.142120, 1.533879, 0.706004, 0.562534},
  {-0.378144, -1.020778, 1.420410, 0.094943},
  {0.194484, -0.344499, -1.964273, -1.134355},
  {1.167323, -0.573764, 1.456528, 0.630734},
  {-0.374889, 0.715683, 0.036556, -0.328730},
  {0.632411, -2.910039, -0.286872, 0.588247},
};
const float B0[16] = {-0.257181, 0.288405, 0.359505, -0.338921, -0.526843, -1.172196, -0.257448, -1.092254, -0.011105, 0.553667, -0.197177, -0.508611, 1.344591, -1.203609, 0.674659, -0.633755};

// Layer 1
const float W1[1][16] = {
  {-0.722807, 1.143747, -2.796131, -0.303234, 0.000827, 1.404292, -1.849748, -0.602802, -0.910037, -1.269891, 0.561140, 1.731714, -1.562075, 0.506284, 0.433065, -1.199914},
};
const float B1[1] = {0.240687};

#endif // NN_WEIGHTS_H
